~o
<STREAMINFO> 1 39
<VECSIZE> 39<NULLD><MFCC_D_A_0>
~h "proto"
<BEGINHMM>
<NUMSTATES> 5
<STATE> 2
<MEAN> 39
 -4.486945e+00 -8.874283e-01 -6.165622e+00 3.532342e+00 5.313854e+00 1.065679e+00 -9.320008e+00 -3.324619e+00 -3.349836e+00 -5.850732e+00 -5.351645e-01 -6.395295e+00 5.979715e+01 -5.331339e-02 9.050598e-03 -3.641508e-02 1.873243e-02 1.531401e-03 1.283012e-02 -9.905992e-03 7.548997e-04 -1.130259e-03 -3.451834e-03 8.717242e-03 -2.002179e-02 2.335470e-01 -9.724835e-05 2.956768e-05 -3.230246e-04 1.433035e-03 -3.747885e-04 2.785349e-04 -6.014560e-04 -1.065283e-03 -9.521644e-05 4.717539e-04 -7.763400e-04 5.812302e-04 -7.940927e-04
<VARIANCE> 39
 5.691546e+01 3.166233e+01 4.671411e+01 4.766405e+01 8.445784e+01 3.326874e+01 6.587160e+01 4.814201e+01 3.827699e+01 3.958435e+01 1.719239e+01 2.683323e+01 6.086106e+02 1.905731e+00 1.328921e+00 1.867592e+00 1.659201e+00 1.580801e+00 1.729957e+00 2.034276e+00 1.793631e+00 1.534234e+00 1.604101e+00 1.241061e+00 1.417139e+00 2.736341e+00 2.676620e-01 2.336203e-01 2.966951e-01 2.660557e-01 2.619300e-01 3.039732e-01 3.331944e-01 3.077060e-01 2.909681e-01 3.031556e-01 2.385167e-01 2.658412e-01 3.202229e-01
<GCONST> 1.131416e+02
<STATE> 3
<MEAN> 39
 -4.486945e+00 -8.874283e-01 -6.165622e+00 3.532342e+00 5.313854e+00 1.065679e+00 -9.320008e+00 -3.324619e+00 -3.349836e+00 -5.850732e+00 -5.351645e-01 -6.395295e+00 5.979715e+01 -5.331339e-02 9.050598e-03 -3.641508e-02 1.873243e-02 1.531401e-03 1.283012e-02 -9.905992e-03 7.548997e-04 -1.130259e-03 -3.451834e-03 8.717242e-03 -2.002179e-02 2.335470e-01 -9.724835e-05 2.956768e-05 -3.230246e-04 1.433035e-03 -3.747885e-04 2.785349e-04 -6.014560e-04 -1.065283e-03 -9.521644e-05 4.717539e-04 -7.763400e-04 5.812302e-04 -7.940927e-04
<VARIANCE> 39
 5.691546e+01 3.166233e+01 4.671411e+01 4.766405e+01 8.445784e+01 3.326874e+01 6.587160e+01 4.814201e+01 3.827699e+01 3.958435e+01 1.719239e+01 2.683323e+01 6.086106e+02 1.905731e+00 1.328921e+00 1.867592e+00 1.659201e+00 1.580801e+00 1.729957e+00 2.034276e+00 1.793631e+00 1.534234e+00 1.604101e+00 1.241061e+00 1.417139e+00 2.736341e+00 2.676620e-01 2.336203e-01 2.966951e-01 2.660557e-01 2.619300e-01 3.039732e-01 3.331944e-01 3.077060e-01 2.909681e-01 3.031556e-01 2.385167e-01 2.658412e-01 3.202229e-01
<GCONST> 1.131416e+02
<STATE> 4
<MEAN> 39
 -4.486945e+00 -8.874283e-01 -6.165622e+00 3.532342e+00 5.313854e+00 1.065679e+00 -9.320008e+00 -3.324619e+00 -3.349836e+00 -5.850732e+00 -5.351645e-01 -6.395295e+00 5.979715e+01 -5.331339e-02 9.050598e-03 -3.641508e-02 1.873243e-02 1.531401e-03 1.283012e-02 -9.905992e-03 7.548997e-04 -1.130259e-03 -3.451834e-03 8.717242e-03 -2.002179e-02 2.335470e-01 -9.724835e-05 2.956768e-05 -3.230246e-04 1.433035e-03 -3.747885e-04 2.785349e-04 -6.014560e-04 -1.065283e-03 -9.521644e-05 4.717539e-04 -7.763400e-04 5.812302e-04 -7.940927e-04
<VARIANCE> 39
 5.691546e+01 3.166233e+01 4.671411e+01 4.766405e+01 8.445784e+01 3.326874e+01 6.587160e+01 4.814201e+01 3.827699e+01 3.958435e+01 1.719239e+01 2.683323e+01 6.086106e+02 1.905731e+00 1.328921e+00 1.867592e+00 1.659201e+00 1.580801e+00 1.729957e+00 2.034276e+00 1.793631e+00 1.534234e+00 1.604101e+00 1.241061e+00 1.417139e+00 2.736341e+00 2.676620e-01 2.336203e-01 2.966951e-01 2.660557e-01 2.619300e-01 3.039732e-01 3.331944e-01 3.077060e-01 2.909681e-01 3.031556e-01 2.385167e-01 2.658412e-01 3.202229e-01
<GCONST> 1.131416e+02
<TRANSP> 5
 0.000000e+00 1.000000e+00 0.000000e+00 0.000000e+00 0.000000e+00
 0.000000e+00 6.000000e-01 4.000000e-01 0.000000e+00 0.000000e+00
 0.000000e+00 0.000000e+00 6.000000e-01 4.000000e-01 0.000000e+00
 0.000000e+00 0.000000e+00 0.000000e+00 6.000000e-01 4.000000e-01
 0.000000e+00 0.000000e+00 0.000000e+00 0.000000e+00 0.000000e+00
<ENDHMM>
